{
  "input_len": 784,
  "output_len": 10,
  "hidden_lens": [
    30
  ],
  "layers": [
    {
      "weight_rows": 30,
      "weight_cols": 784,
      "weights": [
        -0.04235194540913911,
        0.007654337291751872,
        -0.06361452378125115,
        -0.04020217082216578,
        0.0434961096311491,
        -0.05510297271696234,
        -0.06876031168735941,
        0.050997886590703964,
        -0.07886850421715653,
        -0.02883317630527902,
        0.06240940385610709,
        -0.011063278220963228,
        0.018590524457173838,
        -0.0674978035391276,
        0.06516066164984272,
        0.06994622052497423,
        -0.018157106446262287,
        -0.046418823504864634,
        0.0760354032220717,
        0.06554903123155292,
        -0.01746159560665028,
        -0.07605943068826525,
        -0.06590565925580194,
        0.05283708590514893,
        0.008735469826374867,
        0.005438327092379231,
        0.07002043711804848,
        -0.03526172680409044,
        -0.060246434886314724,
        0.08477789841696684,
        -0.04532146896573345,
        0.04274716107197225,
        -0.012347101254794874,
        0.049819949551662183,
        0.053068655097071454,
        0.0689502464588153,
        -0.03726043553258839,
        0.037695432422108,
        0.05447502947631109,
        -0.1156312987550522,
        -0.09967423500366845,
        0.02021408143716909,
        -0.06117208037114892,
        -0.07670308187078723,
        0.012091567463336792,
        0.00344883319495887,
        0.018378295890432154,
        -0.009949681118684226,
        0.06240804761872656,
        -0.03713281579772003,
        -0.09639584081576161,
        0.03279078065629315,
        -0.02706094435860737,
        0.08171140984190843,
        -0.06786523683598171,
        0.08149726520484334,
        -0.03065041312637177,
        -0.0011157401133649353,
        0.03739111787462307,
        0.06716748966272011,
        -0.08055528154246311,
        -0.03371314572481684,
        0.06451951937511453,
        -0.07525229616290445,
        -0.04594641886529495,
        -0.12211314766249995,
        -0.052809653241968894,
        -0.05010672852116559,
        -0.1356552712169859,
        -0.06549381698149241,
        -0.15407904504324968,
        -0.06642035533339853,
        0.015214205305216971,
        0.19983773540236482,
        0.25750971009827645,
        0.13821051183978147,
        0.0944293935092898,
        -0.056015257965385576,
        0.05498455957824876,
        -0.025919736973443054,
        0.0321604780611585,
        0.04756915402476597,
        0.0022772690815722834,
        0.008913408295679597,
        0.059836003055228335,
        -0.08566943901703088,
        -0.0178363871924997,
        0.06932973778916211,
        0.04935493642179319,
        -0.04164079115491595,
        0.007760751014404956,
        0.049837973786780024,
        -0.05747799066303807,
        -0.06072849698681919,
        0.07451452555996886,
        -0.18514347413806465,
        -0.31490929466264184,
        -0.48516123974618774,
        -0.5714478149190194,
        -0.3633394512359717,
        -0.27603290438226624,
        -0.0710404546560815,
        0.4595411537097588,
        0.9696933021591658,
        0.5872138308663533,
        0.2849963567651865,
        0.13281295790624784,
        0.20249281757386198,
        0.1063723730815151,
        0.06369720706554312,
        -0.06327386266219559,
        0.04306353987572752,
        0.041939537048071296,
        -0.026711425633267637,
        0.012283231615203569,
        -0.06174619795615946,
        -0.05003232703526454,
        -0.10765764492472663,
        -0.015920653612443332,
        -0.25099258362638693,
        -0.7229500458939502,
        -0.7198653725691948,
        -1.0160835142823916,
        -0.09684141822355531,
        -0.9544140905916751,
        -1.4824720737230717,
        -0.8228512469498681,
        -0.5087536931081972,
        -0.676389575555422,
        0.05973661825787098,
        0.7627439518236466,
        0.7809935144990029,
        0.3553272764433617,
        0.6207519445910091,
        0.9025844425662443,
        0.8490514391992979,
        0.3035591921553344,
        0.12248533716747156,
        -0.03459132012809956,
        0.06889574674562328,
        -0.04799648133423306,
        -0.009585658769071545,
        0.05012730055212488,
        0.018351602491615538,
        -0.0522343634642065,
        -0.26972264323269796,
        -0.38274171831910253,
        -0.8901044575659101,
        -0.6941107201012807,
        -0.5080705670843472,
        -0.25459269304414145,
        0.5862887420401819,
        -0.493069742376848,
        -0.37059277989291617,
        -0.06608336303355095,
        1.6023712265773289,
        0.5410819419482048,
        0.18339809791798323,
        0.6396821941664261,
        -0.1409038633702593,
        0.561100543995894,
        0.9883387093821698,
        0.9992941041538828,
        0.6071179865655172,
        0.0026636830000247858,
        -0.13124483041183488,
        -0.08392244101623864,
        -0.018212626074382808,
        -0.06449770820298396,
        0.0021044296450412974,
        0.049944497256834926,
        -0.029377110092909702,
        0.09655054697507112,
        0.029104682190544316,
        -0.04053944513150563,
        -0.534596917011926,
        -0.5507221947546267,
        0.010022605705516389,
        0.5956900167211748,
        1.3642688669837475,
        0.8595607169396727,
        1.740845027040579,
        1.8152559361164475,
        1.1322238203111408,
        1.2989764727193247,
        -0.30082008190976744,
        -0.44338533935834773,
        0.05341708490701948,
        0.2861438577514554,
        -0.03517159597881576,
        -0.054992781185835914,
        -0.3119209849139364,
        -0.44201422247036015,
        -0.14719101500692355,
        -0.05647432699286293,
        0.07986379623761909,
        -0.007673922768461139,
        0.06908012282645253,
        0.004133676418019298,
        0.12894271006341645,
        0.06806913896991974,
        -0.3778463331305368,
        -0.06409651498260004,
        -0.30026400188462665,
        -0.0481954663656043,
        -0.2831387490818727,
        0.8780150358148294,
        1.6631817858352989,
        2.514425738262506,
        1.3332444873932836,
        0.2709155044180066,
        -0.9070146787302856,
        -0.4946238357077479,
        -0.5820081418620071,
        -1.3632219413325342,
        -1.7280058977236206,
        -0.8364236457874384,
        -1.2621476675573067,
        -1.3437869551567232,
        -0.8269568124273181,
        -0.21575531679215404,
        -0.1416614285628271,
        0.034972863436508184,
        0.024948159957233863,
        0.006118101899043666,
        0.036040002065592075,
        0.10722395023370397,
        -0.12941836490765593,
        -0.04855737763770036,
        -0.6050257757737784,
        -0.3256797202063775,
        -0.512099863295744,
        0.5745282015103913,
        -0.19029709668584693,
        0.042104836145335556,
        1.2183188390654291,
        -0.31980364578432485,
        -1.2894501863995453,
        0.08833140875327015,
        -1.0510050057882956,
        -2.1839338485530657,
        -1.1844022241236065,
        -0.4431154272970484,
        -2.096559042104742,
        -1.8426260483798407,
        -1.6320072994921144,
        -1.335923080726698,
        -0.2943608983827519,
        0.09186027599696885,
        -0.17204559840780398,
        -0.18620424092428065,
        -0.07367531464345074,
        0.08068242800554185,
        0.01358146976468093,
        0.11994903357397581,
        0.14189875914299152,
        -0.001880323751517367,
        -0.5672552270281837,
        0.11089730899362735,
        0.6054227226254741,
        0.7795156719170399,
        -0.12779835489201313,
        0.24177843458798273,
        0.721511842309599,
        0.06039728411195069,
        -1.294665116398258,
        1.1157126471294523,
        0.5918942718533813,
        -0.6973932583752533,
        -0.0701688317412779,
        -0.7200465520761127,
        -2.0702628789442628,
        -1.2935232586872871,
        -1.0947685635159572,
        -1.4678366211463632,
        -0.2377277178293091,
        0.4647890641814136,
        0.23662246643749346,
        0.3797234265819844,
        -0.08421307450479355,
        -0.06725009677794967,
        -0.006915922394239294,
        0.191157604053442,
        0.05992445611381545,
        0.0514968423257236,
        0.3873003888385783,
        0.2938538689024206,
        0.7859094306651765,
        0.7128189155473668,
        0.7040286912273503,
        0.14718380432246972,
        -0.2311144308067784,
        0.8432092520063801,
        0.3470171756607275,
        0.8769252848060242,
        1.5020690112596384,
        1.4070352092366318,
        1.8448574126438166,
        0.43657480262524806,
        -0.43231406973195224,
        0.18944078518350876,
        0.010834270106912357,
        -0.442639511089269,
        0.3236599310272954,
        0.8125498428846888,
        0.8560118067559542,
        0.26707772243293715,
        -0.051679864934986,
        0.0041501668771684146,
        0.03673062055552318,
        0.15080314992102603,
        0.06881790256721461,
        0.39031139533901243,
        0.29774416987781194,
        0.7461599462369005,
        -0.36452417202005827,
        -0.07061975477900923,
        0.05908080978693319,
        -0.8572916406168984,
        -0.17229564822049406,
        0.6234259219032131,
        0.29982602324880453,
        -0.003316787889342532,
        2.882433848583861,
        1.800646391764699,
        2.350506019249012,
        0.9261566107439403,
        1.7186053175472744,
        1.4525460259732232,
        0.6340923619161868,
        0.27427367142628856,
        0.4515609995089615,
        0.7345228880359248,
        0.4875847022322442,
        0.18942654966834985,
        0.05822475159181352,
        0.06386636721191148,
        0.058807288283316245,
        -0.04685250243055713,
        0.6742056851956079,
        0.7866505200667988,
        -0.019782315494364607,
        0.3577630668474542,
        -0.4847342428084769,
        0.05902630241999085,
        -0.26691031877116844,
        -0.8649648413517427,
        -1.201204082743257,
        -0.7727034128802118,
        -0.09691372679928127,
        0.8271855081889187,
        -0.08492972326317375,
        0.553810746840525,
        0.5252174096461536,
        0.34383036451971294,
        0.7021122542457606,
        1.0790823577968913,
        0.029245056043322004,
        -0.031050756899549208,
        -0.4385429017172495,
        -0.6590923935107909,
        -0.06325950451552628,
        0.12138977707859172,
        -0.09458424798694655,
        0.04088369953073052,
        0.0816339386423024,
        -0.1273380170189489,
        1.0890123082492398,
        0.8652057882914815,
        -0.2489616209250057,
        -0.5829138062982652,
        0.5215207392121542,
        1.1408415130473737,
        1.2165071906632763,
        0.433035689789827,
        -1.312996325563234,
        -0.5139863180236889,
        0.5566031947524988,
        -0.2577575121896817,
        -2.2048235492492467,
        -1.2102278591560465,
        -0.4426730695792386,
        -0.1930775189767775,
        0.11570713937700135,
        0.744003634169404,
        0.28296480060981044,
        -0.22907488285536484,
        -1.2272548494375202,
        -1.0684878521108516,
        -0.4071304078482746,
        -0.06564001071129553,
        -0.12709194145102495,
        -0.01295576372149637,
        -0.05656982401089273,
        -0.013188550650211189,
        1.0184607594170056,
        0.39487451154502046,
        -0.8605434988425098,
        -0.5758119449438748,
        0.2544003680061829,
        0.6796029012599194,
        -0.0017685855933265808,
        -0.15539344395027616,
        -0.535910688980914,
        -0.5262454284017576,
        -0.6300525981373747,
        -1.7436478640041535,
        -1.0225968509796386,
        0.6945702359524745,
        0.014373644397942517,
        0.1260794887604563,
        -0.11366736219737315,
        0.10758532226605946,
        0.7582153137741444,
        -0.11573953676176742,
        -1.0104285488938802,
        -0.7486233538307931,
        -0.42342740401557905,
        0.03598589347313358,
        0.019236384493922256,
        0.07125128773162635,
        -0.01973821809546412,
        -0.07756768500817185,
        0.9898338827671674,
        0.19895407827677006,
        0.038067585709236365,
        0.3734969746723194,
        0.5208631803267956,
        -0.21691438242346942,
        -0.29374989888982145,
        -0.34710588826018335,
        -0.2736178373448207,
        0.5871820138693904,
        -1.0682195473700897,
        -1.648372178602966,
        0.03662105611480387,
        0.08639683179237304,
        0.46106566163658397,
        -0.3209923752304989,
        -0.32789697326743056,
        -1.538555061901182,
        0.41583395959474934,
        -0.8696274776121801,
        -0.9547468458849412,
        -0.30795580435100933,
        -0.30906650591876766,
        0.013244958877351826,
        0.053027601021760046,
        0.023490288971142564,
        -0.045501897531331346,
        -0.026325536542429265,
        0.6057118608956302,
        0.7353610773720854,
        0.747696704687315,
        0.08713447974259385,
        -0.07999574851826376,
        -0.2133007231887397,
        -0.6225263968076149,
        -0.373089687119696,
        -0.16578003957707907,
        -0.6301476324012856,
        -0.8359621807906246,
        -0.6873414474829794,
        -0.7790481621701079,
        -0.9700059019524558,
        -0.7273420610927104,
        0.11247420704951791,
        -0.05334999159904479,
        0.3994273492316899,
        0.2152591796813328,
        -0.46325919562847884,
        -0.33027446983654857,
        -0.25318064205690255,
        -0.1692244273475575,
        -0.062422970811651435,
        0.03267198155120815,
        -0.07393265992613057,
        -0.08048701555705923,
        -0.04989974068008265,
        0.3948397494167898,
        0.6465166499075795,
        1.2282336604813378,
        0.3038607311799706,
        -0.053496759553477054,
        0.15651449353078076,
        0.16389326473292393,
        -0.5384816403683919,
        -0.003892326704406708,
        0.5997279866001408,
        -0.38868655601818175,
        -0.53537996960484,
        -0.7273798113584117,
        -1.6918543524294662,
        -0.6930716718503579,
        0.14399647078443353,
        -0.8350123274714306,
        0.134701170971722,
        -0.7465916518833926,
        -0.8887256824826835,
        -0.9030801379042188,
        -0.14812121732440683,
        -0.12762676378395746,
        -0.06283322286424504,
        0.11275306112877298,
        -0.038272313192828845,
        0.03778879993391986,
        -0.0071845170678217435,
        0.20480804867307204,
        0.524765829709488,
        0.8638601006438642,
        0.48028684049777653,
        -0.04962304172946594,
        -0.6370867265091278,
        -0.6008874187581955,
        0.331849390398961,
        -0.07894140642798059,
        -0.23085807213085574,
        -0.4448617423846335,
        0.07877395143419215,
        -0.10412642546218344,
        -0.794722828896102,
        -0.5324762949363385,
        -0.2246436420074994,
        -1.1079756059125712,
        -1.0058815550669227,
        -0.43393694686506057,
        -0.5135550099913588,
        -0.6535123886329517,
        0.2768705521492036,
        0.002373630261285348,
        -0.006055389745279291,
        -0.05383840359460668,
        0.012334284727864133,
        -0.060210819731229125,
        0.14428977989179956,
        0.35085701726724194,
        0.2534495145951078,
        -0.16579453088159793,
        -0.7617384760584343,
        0.05604844539211317,
        -0.7160099265964711,
        -0.9530184462612429,
        -0.8891440690673983,
        -0.46931628833283245,
        -0.6086082036393755,
        -0.6368034319779333,
        0.4618880794199112,
        -0.18278960627158564,
        0.054789036930844984,
        -0.44305590859815736,
        0.4847568965916615,
        0.03469836743375778,
        -1.0136736530929333,
        -0.4129944444695747,
        -0.4184154602615158,
        0.05685271473946353,
        0.7166087303448987,
        0.2323040622904024,
        -0.052356973876662605,
        0.07364340790293666,
        0.05136856165460032,
        0.08114956159700039,
        0.19549814369512603,
        0.20677505097826754,
        0.4898289592262517,
        0.30095580112040043,
        -0.11429350316997937,
        -0.6235563525194385,
        0.27633950237276,
        0.016972236904148386,
        0.13666996259619024,
        -0.4292147528117698,
        -1.1444954791380797,
        -0.8817091091613849,
        -0.7647371005936533,
        0.1562422639671757,
        -0.23883013974196945,
        0.18276697096235484,
        0.04503553286621813,
        -0.4656456011047953,
        0.14934430632907572,
        -0.6197793289141919,
        0.020144137330963326,
        0.5112632376913088,
        1.0151787262495908,
        0.4284882797920435,
        0.05148474578064063,
        0.04650583230230137,
        -0.05330187500409333,
        -0.06128503020299442,
        0.01028710793577319,
        0.04441258106266505,
        -0.20592097075021423,
        0.3263188008945271,
        0.023538887574929158,
        0.26040359291138543,
        0.5424829222470796,
        0.01436755685894908,
        -0.24615963116549913,
        -0.6623007115048336,
        -1.5769203399658234,
        -2.966000958710972,
        -1.0488477239231309,
        -0.6561370063341845,
        -0.5996745037592642,
        -0.33214115077704465,
        -0.560083952535204,
        -1.3769828260362227,
        1.1879766906545888,
        -0.19827273790554426,
        0.3332188601431771,
        0.6797444976067665,
        1.045382115002889,
        0.4888111530829164,
        -0.023743119339171413,
        0.08118414581770897,
        -0.060245005251172795,
        -0.04742862553818173,
        -0.01174179995221159,
        0.16825187805314956,
        0.006967178962104282,
        -0.4398101895699996,
        -1.059708716350487,
        -0.04359103610896756,
        -0.23144276146612677,
        -0.2693116104892749,
        -0.9646391575017372,
        -0.9185729672688845,
        -1.0248285117127447,
        -0.6375232571698362,
        0.867942086021664,
        -0.4036516956786035,
        0.14931134552327388,
        -0.03826201351008952,
        0.43216091942365575,
        -0.4477763270460706,
        0.29562197454753264,
        -0.6977074766761389,
        0.2066436936655184,
        0.2886643670862215,
        0.504015871259765,
        0.2427965649604421,
        0.04534591454974672,
        0.03376980000159746,
        0.08366909584587913,
        0.05742942151917071,
        0.05172329234785961,
        0.2516569312089486,
        0.26358198030201163,
        0.009674369578693949,
        -0.5187071165209641,
        -0.6415383283622613,
        -0.167248092943218,
        -0.5406302878246501,
        -0.6948532766873252,
        -1.1656998022622598,
        -1.1666867120629378,
        -1.3369916633709116,
        0.40601758099441615,
        0.17999660934779643,
        0.16243386712542743,
        -0.0033414050273639783,
        0.3621051170831854,
        -0.6071963396868232,
        -0.664466820311891,
        0.0634727345284155,
        1.2833808721656406,
        0.32414983000191866,
        0.19336345766097401,
        0.14695417841791056,
        0.09989097250271506,
        0.06205684354113077,
        -0.0638589182807695,
        0.012340071130276575,
        -0.05014196996341798,
        -0.029290250188927395,
        -0.01226572307678063,
        0.1715562714249986,
        -0.10051869950463856,
        -0.5655856679041259,
        -0.6738294908989998,
        -0.7590832762749082,
        -0.15534079946136434,
        -0.03232617190603191,
        -0.20867678885378113,
        -1.2793292304508395,
        -0.8208591567045641,
        0.19211544583157542,
        0.7606380514997437,
        0.37335710345472106,
        -0.19400009949738362,
        -0.18896828784781056,
        0.5407561724112843,
        1.431134024484936,
        0.8105173865361325,
        0.3539902307308285,
        0.07540964939803914,
        0.08118224380551095,
        0.002395156909816879,
        -0.0568614154758448,
        -0.00842353402553167,
        0.054891817111591336,
        0.009037912945882309,
        -0.04805945153979317,
        0.019138186175419465,
        0.09583200287471656,
        0.03507969271656536,
        -0.1504178894058948,
        -0.24963591522556097,
        -0.3866424419494332,
        -0.12050954483280203,
        -0.05968637761224303,
        -0.1306597751593351,
        -0.8776904640712219,
        0.031493259280347824,
        0.30894724769913084,
        0.005529967648675545,
        0.4046074946389224,
        0.15880034671716017,
        0.22658472173681204,
        0.47348495110064126,
        1.1824975712510906,
        0.38313029620869143,
        0.26124864707089673,
        0.05687483514251547,
        -0.005212324490888796,
        0.08011474940790479,
        -0.05599448475138433,
        0.007042565528751714,
        -0.005557593287372231,
        -0.009606584779629699,
        -0.029654995240092342,
        0.031588745881527776,
        -0.015399181504153125,
        0.0035015491291896204,
        -0.07973918464750096,
        -0.04526597429861039,
        -0.011513393201265465,
        -0.08019216342829176,
        -0.025213449647517355,
        -0.02161837874137951,
        -0.434270981706297,
        -0.4759636706370417,
        -0.1832036944868174,
        0.1028609814606385,
        -0.0878774793006952,
        0.0870227471843784,
        0.2910121723907865,
        0.6228345351622256,
        0.6692279797895856,
        0.238432674930803,
        0.002122119489562867,
        0.0709721988368698,
        -0.058436498373935504,
        0.001128341478229103,
        0.04395250159317889,
        -0.0072665973663589515,
        -0.05418986305552573,
        0.015633483331478886,
        -0.052251757096033254,
        0.06505798270400316,
        0.05098111722906957,
        0.007751677871438547,
        -0.05863696110119098,
        0.009894669356054384,
        -0.06052252263609407,
        -0.06951391945701807,
        -0.025267208427334438,
        -0.10778410624783748,
        -0.15712571640119308,
        -0.12304858105001054,
        -0.024721860434131694,
        0.12353941627553801,
        0.1523192108545517,
        0.22395873567852384,
        0.035621401652993816,
        0.018141177859519027,
        0.1293451178094598,
        0.16901834799065338,
        -0.05754457298502742,
        -0.07305264699825408,
        -0.009225486406193868,
        0.005615962963451709,
        0.0006881855486620698,
        0.08215236605567128,
        0.021154526719198468,
        -0.03244172184336347,
        0.057888213932931656,
        -0.0037682357567581323,
        -0.030636902050484468,
        -0.0073118574280479085,
        -0.07612677104938606,
        0.06015062530191371,
        -0.0037195740983999286,
        0.07734179001743216,
        -0.01889715289873545,
        -0.007882910404482496,
        0.09901123257780071,
        -0.0737313630967609,
        -0.08274219670951978,
        -0.062174499314169185,
        0.07203895015071005,
        0.0002636312342621743,
        -0.027570367440841397,
        0.05692134816715629,
        0.029368552631979534,
        0.01209871305955802,
        -0.011917786604453261,
        0.05660687636497294,
        0.043631430680942766,
        -0.06672994223844791,
        0.05318472145784805,
        -0.08354517607036326,
        0.026250577410885934,
        0.03871579576253609,
        0.024970637718064827,
        0.06529729817305174,
        -0.07944893903059135,
        0.15827551598057285,
        0.13318577330931175,
        0.24338293059355456,
        0.14367862188093417,
        0.15855635931664414,
        0.23372095097237033,
        0.21357303605550976,
        0.23422054017512747,
        0.21478706320996946,
        0.19757333600836285,
        0.21999699157858849,
        0.10955641484445312,
        0.08186167215038918,
        0.21211664655336254,
        0.2270350355419142,
        0.22065696271866497,
        0.10294304329721637,
        -0.06038320662959079,
        0.07073393334878744,
        -0.003681399299284324,
        0.07749305313317328,
        -0.05772620423549041,
        0.0397064602362511,
        -0.05591123390617272,
        0.052971152784379125,
        0.02081276681090945,
        0.08697597687483086,
        0.004683616544701394,
        0.12329612733486524,
        0.3738370647278755,
        0.3818416503887862,
        0.0070000673280133435,
        0.08390288032656064,
        0.33676181405375527,
        0.6082267882471091,
        0.33837825458470455,
        0.5513375795958473,
        0.2737919658041913,
        0.4284519129236113,
        0.8040857379817398,
        0.8531408902925615,
        1.1450600995636753,
        0.4356849215288315,
        0.42401091784446476,
        0.1189047773653914,
        0.12859138944472623,
        -0.06879472146588388,
        -0.033105615732196385,
        -0.06184972343652486,
        -0.02544736051470809,
        -0.009334657194425966,
        -0.04010409585288606,
        0.0044963843539997765,
        0.06068723288671615,
        -0.0214839467911818,
        0.06647352101179432,
        0.21594861988809336,
        0.5274860126907133,
        0.21383609567174863,
        -0.18555775525987095,
        -0.6297294486137525,
        -1.3381035102810577,
        -0.35212344694988607,
        0.29641324540108605,
        -0.11410080008903536,
        0.12359480727674055,
        -0.28044175223001483,
        -0.2707710079711102,
        0.3285601150365582,
        1.156040112316307,
        0.608172363605893,
        1.529730212076218,
        0.9363275373729996,
        0.9384746711418878,
        0.24025256064467562,
        0.03645412289903376,
        -0.02076608774038451,
        0.045427420494858095,
        0.0549175789263342,
        0.02304462383768307,
        -0.0882030083689813,
        0.0002236737802976874,
        -0.12327583358384545,
        -0.6772041243309526,
        -0.5402833493266108,
        -0.5371257554225995,
        -1.283298789062814,
        -1.0953732201629103,
        -0.33419059504408055,
        -0.2962099812601727,
        -0.24923695218305203,
        -1.1343606876636747,
        -0.8853353765030932,
        -0.20537248731960067,
        -0.7765510650154164,
        0.1796809377082274,
        -0.40069341141211295,
        0.2884710555980341,
        0.699367143467521,
        1.4312373129327147,
        1.2261546195373612,
        1.2962202298430696,
        0.5943022455335011,
        0.3739193654424588,
        0.17386686009959357,
        -0.022439409083627456,
        -0.0022986453890537282,
        -0.028937493569152338,
        0.06465716640304385,
        -0.10761224875033969,
        -0.5441203737778634,
        -0.817155279908815,
        -0.5733917652447382,
        -0.9105224362904051,
        -0.8472426828182182,
        0.02892154728829066,
        0.16726546194844574,
        -0.5306847965385119,
        -0.2628455655885169,
        0.39322079974371066,
        -0.10158555703445117,
        -0.5792334843481614,
        1.2338662689147868,
        0.9976439835648564,
        0.999065275836869,
        0.9266137521060114,
        1.2189069068759155,
        0.3624348278121965,
        1.6047517132121722,
        1.7137889332478482,
        0.9741701794867571,
        0.36021343156297325,
        0.0315071295996684,
        -0.005058561985154405,
        -0.07100347259412204,
        -0.05804994405693269,
        -0.0425004040327114,
        -0.384091560293737,
        -0.8060806075441818,
        -0.47108288701074014,
        -0.6037210759611372,
        -0.22570592783550944,
        -0.5832383649777244,
        -1.0488980575880167,
        -1.4543162329860646,
        -0.41129573540352216,
        0.11811215362635034,
        0.5747222154402594,
        -0.10600450779181698,
        0.34473856017294596,
        0.2636497129175818,
        -0.1277981030529624,
        0.361858233360897,
        -0.5340212522705602,
        0.6770819280999437,
        -0.009582027769674383,
        0.4114780243850325,
        1.3393777566379643,
        1.6929623950437502,
        0.7724257582502542,
        0.040599500766678544,
        -0.04536020750327489,
        -0.06499091720753196,
        -0.08214698740629339,
        -0.14036600779156622,
        -0.38300657464145405,
        -1.1547090359428434,
        -0.6984205425884981,
        -0.6129757724836452,
        0.23491071559405427,
        0.1562033784055042,
        -0.08411184316182567,
        0.6812298641739873,
        -0.6992221166518834,
        0.6598454484644393,
        -0.8463204175261312,
        0.3521048170065206,
        0.331154952287293,
        0.7206323125707031,
        0.7689054286916731,
        1.7535120931994626,
        0.7818728759019021,
        1.6101624217160075,
        1.0746290765248612,
        1.5159370177770322,
        0.7489937291712051,
        0.5827872170231392,
        0.24965175287550254,
        0.0067333178571875795,
        -0.01591588159599746,
        -0.06706158318814052,
        0.012311858046278854,
        -0.02071041870787066,
        -0.516117860412175,
        -1.4592670558413046,
        -0.3044774430250041,
        0.1649913463721643,
        -0.7027921238945929,
        -0.04419307795930119,
        0.004425837760171059,
        -0.09299919462318268,
        0.40593079275032384,
        -0.02929856188653285,
        -0.08887114152090603,
        -0.7155052101028562,
        -0.42788289525066725,
        -0.5157215549232124,
        1.5411322889587824,
        1.135183724959421,
        2.1760826925345307,
        1.5604634211436144,
        0.5990520725991727,
        0.23660164977516845,
        -0.41075273412392016,
        -0.5485358958507386,
        -0.516853629465341,
        -0.06597307347226429,
        0.08145048767014178,
        0.07670130123247207,
        0.08480497822891324,
        -0.11427533392490778,
        -0.3512192958979737,
        -0.9320714479046143,
        -0.5183417913719249,
        -0.32352313862448884,
        -0.5403386735800338,
        -0.4407875321123258,
        -0.11339017984581098,
        0.36594591174232916,
        -0.13681339142743168,
        0.8183525087382855,
        -0.8193822015615375,
        -0.7613049066476818,
        -1.9949103253935598,
        -3.249641520258016,
        -5.102775663199026,
        -4.860549597770138,
        -4.883800680454055,
        -3.8603431882413504,
        -3.6941588606746696,
        -3.5973880881042657,
        -3.37502300643905,
        -1.7285551787015607,
        -1.0020659993859273,
        -0.06909064626496313,
        -0.039975329922260994,
        0.07756078242749578,
        -0.0018770259819276742,
        0.04841353928855339,
        -0.18577076475468762,
        -0.22679175839604682,
        -0.7800378273786177,
        -0.3274653883204314,
        -0.09442479074113552,
        0.7931009440608939,
        0.2819784837503582,
        -1.1493977273975928,
        -0.2687164841333504,
        -0.13018693986156693,
        -0.9454522571895908,
        -2.054192218360283,
        -1.9173531809885158,
        -2.5250372670461605,
        -4.585423704620553,
        -6.285849444880274,
        -7.348570573295629,
        -6.269650450746115,
        -5.401970640124932,
        -4.497484881282736,
        -3.696185348240211,
        -2.178147234650801,
        -0.9892957628874789,
        0.0009270243388890503,
        -0.06821004499001694,
        -0.029426567409767877,
        -0.016252724792061794,
        -0.001976430765531528,
        -0.08629314530721688,
        -0.3194702035492627,
        -0.006370560623376174,
        0.34570064368420556,
        -0.5448714983003843,
        -0.12494322328754111,
        0.12002087943346465,
        0.4058718961249222,
        -0.8688034045526518,
        -1.1383541364142011,
        -0.2955932691422651,
        0.05542045659834421,
        -0.38581618051693223,
        1.0542695782326978,
        0.817106492852942,
        0.2186365118456506,
        -1.7474671743492007,
        -3.0713992589481185,
        -3.0325821810191633,
        -3.1894226127672796,
        -3.2910162047896505,
        -2.4360609109959377,
        -0.6861844746819575,
        -0.08427572789302033,
        0.1148827561707325,
        0.023951766647268113,
        -0.02866119166912946,
        0.020696841435530057,
        0.033907879398399975,
        -0.26137787416252695,
        0.433231484195682,
        0.8051709991630498,
        -0.2893461248276441,
        0.7457258846423975,
        -1.115690255874973,
        0.04784618042128096,
        0.1337269770849039,
        -0.638741950988598,
        -0.8082495948464616,
        -0.3252277697288473,
        -0.8839902113687436,
        0.2891060957860269,
        0.08398664370424967,
        1.4276008512687128,
        1.7725431731109407,
        0.8567026926366008,
        -0.9994500048727799,
        -0.3776633984922118,
        -1.0446210723506777,
        -1.4401457006262444,
        -0.7336606279832943,
        -0.24002598398729413,
        0.057830101682448676,
        -0.05483217000741151,
        0.024300622567631283,
        0.026709121345108906,
        -0.0896212043106258,
        -0.03263060157251421,
        -0.0897459396588711,
        0.48335968401040663,
        0.3929644414346496,
        -0.9828601320509798,
        -0.5614992301902476,
        0.34376695127858903,
        0.15039476434845642,
        0.1475248221836992,
        0.3711827445825497,
        -0.25850160340503625,
        0.06894681520398084,
        -0.8019647806518109,
        0.3800710924146693,
        0.329604730649765,
        1.1270649458887891,
        0.21351854274927512,
        -0.742052267290839,
        0.4333080070605082,
        -0.01763298752652184,
        0.29938454221517574,
        -0.5305326444565034,
        -0.21645688962040058,
        0.013359500044342745,
        -0.011072806728381917,
        0.017721741325689253,
        0.03458587741486138,
        -0.11538518819069896,
        -0.15306805749117222,
        0.15854917165156623,
        -0.06680671630149344,
        0.477195943663868,
        0.6957760295972231,
        -0.08558351832861037,
        0.5237592584079603,
        -0.013451187878868379,
        -0.6166699509789952,
        -0.2917892874531581,
        0.34882211186110607,
        0.43646224197333716,
        0.23766692513624887,
        -0.0012535171268819698,
        1.0421605418269424,
        -1.1345153221473836,
        1.3576059053492089,
        -0.30948949839197143,
        -0.040102741850119694,
        0.9138115208580303,
        0.6619908658879303,
        -0.7345825972687837,
        -0.2988320381092955,
        -0.005582397621068269,
        0.03923446068652584,
        -0.010305636864913044,
        0.015586401243553857,
        -0.2918095191313851,
        -0.8343661312848052,
        0.3651568439886743,
        -0.28760314013053373,
        -0.5193847894618572,
        0.4574771757345588,
        -0.13695557652505616,
        -0.6323064809531863,
        -0.2816740494991355,
        -0.03356297901863947,
        -0.5128080394135776,
        0.8871823216428387,
        0.32904387096224275,
        0.2879224526306137,
        -0.5729952430636688,
        0.5686694360518182,
        0.03567580659756403,
        -0.02699624231926453,
        0.8519922265124128,
        -0.8661702024436997,
        0.6833104342936238,
        0.9907919993248526,
        0.08257700787384296,
        -0.2727350811933383,
        -0.07797134666686269,
        -0.025084255333105595,
        -0.014006053293573344,
        -0.012022362825860868,
        -0.12376568523385205,
        -1.0396322305298455,
        -0.2831949542395785,
        -0.4923732134791088,
        -0.01370699082013949,
        -0.03171295548323193,
        -0.9908364599658421,
        0.9247879795868117,
        0.20263321505282883,
        -1.2678726299692782,
        -0.2407334912946735,
        0.48882904516874626,
        0.5419566532910685,
        0.03230949046325896,
        0.6309849021128927,
        -0.7325831052775515,
        -0.2645389404625129,
        0.11486265964683245,
        0.1988667561689938,
        -0.253691189497672,
        0.3826713438257166,
        -0.24266208640164982,
        0.1441447477599843,
        -0.2089432092244221,
        0.05831097966554854,
        -0.062245877058350496,
        0.049719163534793186,
        -0.04480573535253964,
        -0.24700003258224545,
        -0.89328888283655,
        -0.15920825121404095,
        0.42248334575422514,
        0.24811248087906482,
        1.3289804226559947,
        -0.5351539758535041,
        0.11166909834328556,
        0.21605953700155062,
        -0.7064137482948109,
        -0.1725098199216664,
        0.7071749726959344,
        0.20327230592263718,
        -0.8452025815683831,
        -0.5423127727716925,
        0.17945954416023682,
        -0.14044837064113916,
        0.8430146751916061,
        -0.6114326543438884,
        0.07331429927800577,
        -0.0018306897307317405,
        -0.01675335069691726,
        -0.10058294810509028,
        -0.19306135541550767,
        -0.030070229253902733,
        0.07404835619550017,
        -0.04749006123844087,
        -0.10214769737780022,
        -0.42680560554892594,
        -0.18579748469609683,
        -0.36589685223327456,
        0.3409439083836162,
        0.3818411787320438,
        -0.20299432305974888,
        0.03070906815166532,
        0.2433287632480747,
        -0.6904131599498892,
        -0.19986574382860803,
        -0.31629136294869353,
        2.420630737976948,
        1.2906156491281695,
        0.6628523855540412,
        -0.2540703997685745,
        -0.07184078983837743,
        -0.12103392740648346,
        -0.23607720528182427,
        0.41830424528211824,
        -0.6571175634503605,
        -0.536515692605609,
        0.2747195000955335,
        0.11242446285918464,
        -0.19280367539521057,
        0.015424886576234418,
        -0.049693010117174564,
        0.03825995274475628,
        0.41497923031619705,
        -0.11324851458298046,
        0.04847593310691183,
        -0.631502011716384,
        0.6573784890832891,
        -1.0359840063807968,
        0.506121436211952,
        0.026852582789542584,
        0.25932239125729,
        0.4558842819073853,
        0.13608743990798158,
        -0.4299022556355405,
        0.9288941414978201,
        0.48066565118052557,
        1.1932641386200342,
        -0.5704698638096505,
        0.5017851402380712,
        -0.4892388925884886,
        -0.36771459154316816,
        0.35407043454098974,
        0.10094413671476503,
        0.24449996918014852,
        0.8106624615447622,
        -0.07112512456528716,
        -0.2248351552583316,
        -0.023244543234448897,
        -0.08079890104043563,
        -0.08263358757495916,
        0.41615720452239974,
        -0.1834012798669353,
        0.18657170296378944,
        -0.05717293533871081,
        -0.04436949471495721,
        -1.02347889680179,
        -0.16673722600315288,
        0.061660551586926106,
        0.025587369649696726,
        0.45117097336286044,
        -0.9196654123688084,
        -0.37042862018019207,
        0.19795367403693356,
        0.9981043207847162,
        0.46262513282680706,
        0.8274183564527386,
        -0.1054424401583074,
        0.7893858820744578,
        -1.2424255985676034,
        0.3463919131068088,
        0.6191155598554469,
        0.08483610411499064,
        0.3557033030520541,
        0.25822695096825043,
        -0.051076640947257106,
        -0.03900322992077879,
        -0.0026729489972850333,
        -0.0756216082422017,
        -0.0067624841978442,
        -0.20947927136541114,
        0.42203352888526535,
        0.42379203646302793,
        0.6064048092573925,
        0.7848592243470576,
        0.3811887427502172,
        -0.49427488891674864,
        0.990547454491461,
        1.3154868653046454,
        0.8895232315415548,
        0.6854101712005736,
        0.8044778290791188,
        0.4673625676957076,
        0.6317662092377666,
        0.262686953620241,
        1.3669438790038595,
        0.1248091252617268,
        1.1337371664755924,
        1.701228423836811,
        0.39405880571121776,
        -0.11258233837421994,
        0.6481505919505961,
        0.6497912914011367,
        0.02129061971772338,
        0.04092880034049707,
        -0.05501171074556301,
        -0.011608002344630003,
        -0.09001373946913266,
        -0.1462313688458877,
        0.4990583733374141,
        0.2302615796357255,
        -0.9418433301574646,
        -0.26350937883490233,
        -0.6127130457184249,
        -0.2668369311106554,
        0.7380396995483528,
        -0.5170581693800529,
        0.5022270507356335,
        -0.1492635799735665,
        0.9140240003435529,
        -0.30931849414621304,
        0.08797261076779778,
        1.0185447491417567,
        0.5234306543375219,
        -0.7527216417497125,
        0.5734718709352468,
        0.370507179447453,
        -0.590173255097545,
        0.10260551835796097,
        0.1637337755550717,
        0.3036170143589238,
        0.2659702169589937,
        -0.07404307557908524,
        -0.0327812425124578,
        -0.0831364364582205,
        -0.029866346750216936,
        -0.035617612208350455,
        0.2619461244641521,
        0.3949567650641514,
        0.4814508745815981,
        0.15981708898481406,
        0.03926621620216714,
        -0.6786463324696104,
        0.6658867253534676,
        -1.7093205040227193,
        -0.4880055791180286,
        -0.20580519623751517,
        -0.06491982940468503,
        -0.5011236045285409,
        -0.43822585264159086,
        -0.13643189181095144,
        -0.1297397180096993,
        -0.7386352095126395,
        0.43362214217934253,
        -0.47750200115800967,
        -0.0690255035985753,
        -0.08909082723017686,
        0.06657508340867278,
        0.4011419290300494,
        0.05924405788763004,
        0.024091679749364558,
        -0.01761565930930974,
        0.00010500646141564284,
        0.042513567990029776,
        0.00039799569079463737,
        -0.16841754567059627,
        0.10255924681855519,
        0.2314512295873226,
        -0.36803777086272055,
        -0.4055983146462553,
        -0.6911494661848085,
        -0.42940186438597866,
        -0.4452554349582804,
        0.5207381835386311,
        -0.0003494076867178514,
        -0.4427247982479665,
        0.21601684460627488,
        -0.38871426233832534,
        -0.18674123480133795,
        1.1470635503133806,
        0.6897910268686027,
        0.7383921166328721,
        0.11547738370997584,
        -0.23757681511165865,
        -0.11281579642684654,
        -0.03031936207378783,
        -0.003507272068018792,
        -0.02629119241357126,
        -0.023991700637025458,
        0.02536558809279074,
        0.06308949495429148,
        -0.054132311165920384,
        -0.004118468031873486,
        -0.14764648397312713,
        -0.22302768729988268,
        -0.2459222863458596,
        -0.3234886320056695,
        -0.10326045900942671,
        0.08989980431168555,
        -0.7671411224940893,
        -0.4097938940754098,
        1.0361415986320217,
        0.23638066585022147,
        -0.38085656800500933,
        0.36593984025485127,
        0.30447933881950495,
        0.7173490255803231,
        0.7571274318635295,
        0.5785313373003724,
        0.1628217157726384,
        0.2590205948632075,
        0.30804387648678594,
        0.1728830854063922,
        0.16902585422796268,
        -0.005411703047846719,
        0.03740833357843872,
        0.07749344571598173,
        -0.04903070131549443,
        -0.02657460213199914,
        -0.005588017535060739,
        0.03550106540348058,
        -0.06034290049688068,
        0.046081304382277824,
        0.0838913907717428,
        0.13703901743626531,
        0.05272042195205421,
        0.215914901975032,
        0.17914372701456843,
        0.24090628462509323,
        0.3722699117790096,
        0.579402829578815,
        0.5228716236612486,
        0.6912725852666068,
        0.7180742228846849,
        0.41133865050150287,
        0.05481052135203088,
        0.11307888898109086,
        0.17256971163550772,
        0.21941908503235458,
        0.026495461754957806,
        -0.020082478958793885,
        -0.03657190921703227,
        -0.040642948596974704,
        0.009094410958219714,
        0.023756168077503113,
        -0.06817671350802729,
        0.07954955808391209,
        0.07382269854303415,
        -0.004570629649317451,
        -0.06019947869321002,
        -0.06734444240458541,
        0.043726502203437434,
        -0.007655305933451104,
        -0.02429921733384155,
        -0.020132175652750696,
        0.03959171558236072,
        0.042907896746691786,
        0.0064194766648852574,
        0.09254563899380379,
        0.08965505682610268,
        0.02362724063708838,
        0.09995082044922103,
        0.005879369676714465,
        -0.02890900420565745,
        0.0795048554784488,
        0.08047497439892147,
        -0.1688839600381009,
        -0.01758155363801842,
        0.07632206139421627,
        -0.005110437978368013,
        0.020168007043037256,
        0.025188250455572547,
        0.033718443344178915,
        0.07538051681971496,
        -0.04493047593325741,
        -0.04153650999533497,
        -0.02937450020807719,
        -0.05131553517671427,
        0.01771036374246177,
        0.05302850473894873,
        0.012664618740780587,
        -0.07724400144699409,
        -0.027913970726708204,
        -0.0786811189800455,
        0.06401961593534877,
        0.009128095987117873,
        -0.010936332827009685,
        -0.05227180879639964,
        0.004675628649809468,
        -0.08193858964542972,
        -0.01972764751833148,
        0.08006630364669737,
        -0.003967716744594085,
        -0.046495350126587454,
        -0.02131586225253731,
        0.08280139910383232,
        -0.05439807976184608,
        0.023489339924508388,
        0.07126774251933178,
        0.057779908714950985,
        -0.025790629984628152,
        0.034832751793645,
        -0.00974811946610096,
        -0.07558206229170115,
        0.004122303969463389,
        -0.02847182646877208,
        -0.026497501658519006,
        -0.08956115569071908,
        -0.10004276515557096,
        -0.010824983981786865,
        0.006480088425239067,
        -0.04976439829872997,
        -0.0034701636461555723,
        -0.09618206190406277,
        -0.01321592592436072,
        -0.2632455498224041,
        -0.5828247913248904,
        -0.14120603338851537,
        -0.03815859953864799,
        -0.044600714306678814,
        -0.045113993477811275,
        -0.13500327580173171,
        -0.010906210626586102,
        -0.031923210918895724,
        -0.03602497677531276,
        0.02373720265239744,
        -0.07631055046648227,
        0.07752936562326301,
        0.06391012055358407,
        0.01935145870668644,
        -0.0006622148020876393,
        0.016557755180511287,
        -0.005765260228435624,
        -0.0062422925258432405,
        0.03452588791416177,
        0.004258922411937005,
        -0.04014425256105412,
        -0.062092163206909794,
        -0.003115018216218986,
        -0.11486727121701111,
        -0.08136450277273241,
        -0.18553754863563718,
        0.04260136252727183,
        0.042200813862116736,
        -0.13963632320409766,
        -0.5767294947382497,
        -0.2989147788221434,
        -0.2655848789598395,
        -0.3019942291795759,
        -0.18672544163629884,
        -0.1694077663133707,
        -0.028950098812295093,
        -0.1204352328471443,
        -0.03301886648501427,
        0.06070784865214163,
        -0.021471076844263963,
        -0.033187706797830015,
        0.041651535948373404,
        -0.029947131425168878,
        -0.06395983918232348,
        -0.05938428368881874,
        0.04134954140918248,
        0.0507950585287244,
        0.060707247243842126,
        0.009389328536100474,
        -0.09943274353330135,
        0.09986316113671566,
        0.061536095880919496,
        0.4132939040429345,
        0.9327184503868501,
        1.1303252399814576,
        1.094273812543085,
        0.0645126099828956,
        0.7326755006385179,
        1.1294587094078457,
        0.5349413311517889,
        0.048320240825067716,
        0.28817943449623906,
        -0.23403782709304063,
        -0.4338513966133336,
        -0.21879998580044308,
        0.02614490914654515,
        0.02549025663175708,
        0.07176195734250577,
        0.07984061873289786,
        -0.0015842604407667843,
        0.040443395667547455,
        -0.010126545882255505,
        -0.003467945500081929,
        -0.024660069295559285,
        0.2773787134764979,
        0.21757383358094143,
        0.3575888662662006,
        1.009209828865776,
        0.794018231065517,
        1.1464387805690057,
        1.581328895331041,
        0.4179469764809657,
        0.8661113393980586,
        -0.21664115376908624,
        -0.1529150880280586,
        -1.0948079098293528,
        -0.38548201463919707,
        -0.3488744744299597,
        -0.7326370649136932,
        0.3985431045206974,
        0.16668521422018565,
        -0.6633177980270989,
        -0.8443531739367978,
        -0.1072602464163195,
        -0.03758479776839516,
        -0.0857460602254606,
        0.05634096350153536,
        -0.00899134688032066,
        -0.05546436700807139,
        -0.07811756597230245,
        0.20417294062628213,
        0.2655409813919495,
        0.49283890140107356,
        0.5988952357215432,
        0.5039147711341638,
        1.0721248358588806,
        0.8382495638566869,
        1.432803925225482,
        0.284771127758181,
        0.41407019125553085,
        1.414680995010545,
        -0.14116853632607565,
        0.016767713983251928,
        0.449987246980842,
        0.15605207066455265,
        0.28021453038564703,
        -0.032573913931972676,
        -0.15534382942331768,
        -0.1922538337270437,
        -1.1489515128608117,
        -1.265778637059893,
        -0.07980117848213696,
        -0.08595432999021682,
        0.01955856400683695,
        0.009012403960988688,
        0.08513443156516688,
        -0.06773548953202738,
        0.03814250059867574,
        0.32581922098593274,
        0.6797826782197569,
        0.900324625472963,
        0.8172283516751002,
        -0.04218595363010204,
        0.3278365157967182,
        -0.17523026973715736,
        1.1234318056325185,
        1.5648887120184087,
        0.41673711827094373,
        1.2744519316169467,
        0.46696629280365454,
        -0.10073823705994821,
        0.8613355754905905,
        0.08090392424070586,
        0.7159271900468949,
        -0.49376492166875696,
        -0.6282394770917845,
        0.05641344908272132,
        -0.28633039974466923,
        -1.1274096469389612,
        -0.5847767619653808,
        -0.24015924120934576,
        -0.059225413131999305,
        0.03526187548942435,
        -0.07747056826163211,
        0.07002960295049415,
        0.07058615396572537,
        0.5132814950297493,
        1.229816171524272,
        0.979084956418419,
        1.1858742115780134,
        -0.17170653230103808,
        -0.1825589200589302,
        -0.37720349245014456,
        -0.435421941891153,
        1.2933564387028174,
        0.6273277043536782,
        0.5081964398583578,
        0.6935941209709355,
        0.3879137826505365,
        0.5488907832555617,
        0.01820891160215774,
        0.5710320545145431,
        0.40784605648253397,
        0.5312797075249451,
        0.8105701059282827,
        -0.9512326752174382,
        -0.6110135502223796,
        -0.6902370851050381,
        -0.40719434270599014,
        -0.10465849249501213,
        -0.07320434083131382,
        -0.023491391235512155,
        0.10197355124180026,
        0.0029004178346893257,
        0.4740889879945703,
        1.4496570348039983,
        0.41983996242337823,
        -0.16071672125982833,
        -0.21704765161620007,
        0.010909129173549179,
        -0.7996030460880617,
        -0.5368260937515905,
        -0.9804065978356347,
        -0.15271401638297338,
        -0.6769379863706061,
        1.492060825261292,
        0.5766164621653013,
        0.41811126925023456,
        0.4751179789564156,
        0.8899855237945412,
        0.28681619966887295,
        0.8380297479232308,
        0.10790263043844471,
        -0.23002859110228446,
        -0.7911666670645238,
        -1.0200029696815969,
        -0.3922177949650125,
        -0.11843257201239209,
        -0.015125498063288313,
        -0.05526208701982739,
        -0.017836551788864993,
        -0.02895910110745442,
        0.5741914040365669,
        0.8822186585078732,
        0.45727464775915333,
        0.8985102600023223,
        -0.08896191291227298,
        -0.7130468725711366,
        -0.8677351016413785,
        -0.8386234808025501,
        -1.1366415068219442,
        -0.6970104549258743,
        0.09280569974355038,
        1.0773487588649981,
        1.612682972178821,
        1.1092836120256448,
        1.682257043793227,
        0.7179676800580748,
        0.2328343134838598,
        0.7609739101230076,
        -0.4699264313544748,
        -0.44322015668941317,
        -0.8429838811325674,
        -0.9160671974109961,
        -0.6833345975992219,
        -0.2865128736920341,
        0.04401009139881098,
        -0.07032276871972434,
        0.08425008332204134,
        0.11885453796392546,
        0.36447995655242044,
        0.7954044212646255,
        1.1537084115799463,
        1.0700181781309088,
        -1.6083712727131896,
        -2.434730193526008,
        -1.6909961311066921,
        -2.1943008967970354,
        -0.8966356095103746,
        -2.0412666215026563,
        -1.5764117768806258,
        -0.49763484176439254,
        1.0155148812292896,
        0.9483210453405438,
        1.0345017651800623,
        0.4414150474262265,
        1.4180707547344515,
        0.7294450003653828,
        1.0835602069423225,
        0.2271632413313806,
        -0.6485935784425025,
        -0.6053953579844641,
        -0.5903204464631011,
        -0.14901921022189063,
        0.07364747285636253,
        -0.08318173961901312,
        0.040027937699287565,
        0.15676641196696373,
        0.40438826870679945,
        1.1562565893544956,
        0.7026453452203499,
        -0.35055168093952815,
        -3.158800415603237,
        -3.322386574818755,
        -1.8683207356748384,
        -1.038486944401815,
        -1.0754289705462714,
        -1.8734937674269123,
        -1.2202220261083836,
        -1.7088022416823454,
        -0.21534215517674798,
        0.1914492421799509,
        0.2250940684270134,
        0.7710760687662138,
        0.45893436189541265,
        1.2322478725147927,
        1.4431540826684068,
        0.8293209883896545,
        0.15831873300031526,
        -0.5922528053339872,
        -0.3987878514132668,
        -0.16195668322728143,
        -0.10888144896484152,
        0.005129565629424338,
        -0.021961941274676895,
        0.11408352401648714,
        0.24885975212099345,
        0.6197850706362024,
        0.8707609941370219,
        -0.4162784038759211,
        -2.4018595151559206,
        -2.3304253397463626,
        -1.3722423910662072,
        0.01867948326831038,
        -1.2103226179914002,
        -1.1871593355562275,
        -1.6768480917598214,
        -1.6367018416893073,
        -2.119236177781491,
        -0.1708192114487945,
        -0.09873937784726558,
        1.0836296725225627,
        0.6577284221156076,
        0.05142862659889607,
        0.18965720409662684,
        0.9797411452557192,
        0.4786765048324616,
        0.1897395449017419,
        -0.08235278293670995,
        -0.03712796721544116,
        -0.11114819283615524,
        0.06477769251185705,
        0.03729046107075952,
        0.035306499636849745,
        0.19398732390473744,
        0.06431290446331638,
        0.6768860382293607,
        0.09906279209614315,
        -1.1676090840924374,
        -1.0996860866455171,
        -0.3281527114306783,
        -0.22423216614277489,
        -0.9093276978407417,
        -1.5639522128457466,
        -1.414226016894212,
        -0.9546541477598894,
        -1.807476167338139,
        -1.7917684153374622,
        0.43920816928512413,
        -0.1615617339216465,
        -0.35511552570061655,
        -0.9891626573462292,
        0.48568227147390225,
        1.1590982493290496,
        0.9128209551483448,
        0.5018324843631388,
        -0.07553576411796174,
        -0.03586481775208239,
        0.041089923237343465,
        -0.012805194816809196,
        0.018904453819500303,
        -0.043747016097600684,
        0.11508959309423863,
        0.2840702243108697,
        0.31405368139410816,
        0.544664176474507,
        0.37386261211128446,
        0.10489845573710069,
        -0.1029797125540678,
        -1.271600758914954,
        -0.9197999731165941,
        -0.2502444101991632,
        -0.8611604269871088,
        -0.5941851000878082,
        -1.5785433358710503,
        -1.214434765123228,
        -0.4744238949150027,
        0.41847295837913,
        -0.26206642628574,
        0.07715410069388315,
        0.6892246795590249,
        0.7118744163408256,
        0.6316207848271861,
        0.5237287794288774,
        0.0013812998605581524,
        0.21442283867783718,
        0.012630473522497803,
        0.02473890360251697,
        -0.07831505024894996,
        -0.001796740667233506,
        -0.022794479563259664,
        0.315849059717594,
        1.08811700608973,
        1.8566273618492137,
        1.5295400411281608,
        0.7699354757084307,
        -0.44360969333201833,
        -1.0317281975366452,
        -1.2198146686056521,
        -1.3696678971575553,
        -0.5945331557284887,
        -1.3994428312986182,
        -1.0417791841280333,
        -1.2817177569030893,
        0.4529506767896858,
        0.3904100461484973,
        0.26882599271476415,
        0.9424341950193329,
        -0.049642652218659,
        0.6289986403682746,
        0.7287761112390235,
        0.54031168448283,
        0.23022705182452113,
        0.25290270693886646,
        -0.07438551452699481,
        0.05618099029674763,
        -0.05079507167794455,
        0.14291223254837462,
        0.033669237132551454,
        0.15922764533080394,
        0.8164149593658196,
        1.5340400971332153,
        1.186475110080208,
        -0.1974144045420855,
        -0.7099095028963431,
        -0.5460528363069671,
        -0.4613854891247768,
        0.5036374395022113,
        0.23518214945948612,
        -1.7135270938968374,
        -1.4547944989010684,
        -0.42420830874874,
        1.468367943915117,
        1.5655157686768277,
        0.8998837856099787,
        1.3189065846971126,
        0.8416983838769801,
        0.2227911154376287,
        0.6723441089081157,
        0.560578706822608,
        0.3442224877385653,
        0.07499265643432827,
        0.030497595349987926,
        0.02655094433867052,
        0.07599842117192794,
        0.12966001853406545,
        0.36908491752630657,
        -0.15385537805041813,
        0.32705045093697677,
        0.9642292436904156,
        0.5032127117537302,
        0.18096981700135126,
        -0.2350395461181281,
        -0.38724834605965647,
        -1.2507074253838568,
        -0.48691961003133843,
        -0.4311915584374369,
        -0.8015487480250362,
        -0.006811596552993929,
        1.3179760456217269,
        0.7321859466603374,
        0.316666443792225,
        0.47736330763605894,
        -0.13238955415681958,
        -0.2039072985708629,
        0.03385157043286128,
        0.14907488886844067,
        0.5999936334142842,
        0.5616145697237961,
        0.03030525876600499,
        0.09916039818931717,
        -0.06887905690906375,
        0.024564457598042114,
        0.12093479988457133,
        0.5659641323958601,
        -0.1930447392891067,
        0.06596165659342716,
        0.04422951301158693,
        0.7946226000278264,
        1.7161364062761024,
        0.4077408178638107,
        1.1824481592086535,
        0.18555103408778162,
        -0.6070711374995686,
        -0.5015874610153157,
        -1.0588349625505766,
        0.39785951220860044,
        0.700223692471914,
        0.7595858883675407,
        0.7195777340067403,
        0.9701955586723287,
        -0.656665691694273,
        0.5359598054943249,
        1.709154260667514,
        0.3871743553277954,
        0.8036430392437058,
        0.6025820246885151,
        0.025768513473695385,
        -0.003927109562359907,
        0.055336140597778985,
        0.049065743014282556,
        0.0968901227217801,
        0.5082057567258771,
        -0.23307537746354626,
        -0.44212728541336027,
        0.49864224522829764,
        0.08593630239042545,
        -0.14073103712478693,
        0.09881781261441692,
        1.649324451822609,
        0.2166310853916039,
        1.146865230122144,
        1.4284914391532795,
        0.745930897963406,
        0.8825727500722641,
        0.35231044641967,
        1.0857496881948414,
        1.2769643328058926,
        0.9879203394389985,
        0.6744348932796687,
        0.510134488790213,
        0.8504055031720477,
        0.28386281957112897,
        0.6587113088839097,
        0.3250385154509024,
        0.1548622378527523,
        0.04857426807658205,
        0.06334042813226767,
        -0.055090331249560344,
        0.1448713220321817,
        1.0437242038060766,
        0.5163326289037701,
        -0.4347330125255979,
        0.5602947605660848,
        -0.01922838096056136,
        -0.8007490325163779,
        0.4031070309549537,
        0.07900999519824212,
        -0.27271922731188447,
        -0.3285782915363828,
        -0.20153627515334982,
        0.3068656591317616,
        0.3344235351094454,
        0.8662020516001203,
        0.6901677372760401,
        0.946829363818682,
        0.13041228122597603,
        0.47359096364394776,
        -0.09620903803028409,
        -0.17500807668794313,
        0.405207711660038,
        0.3865301445064168,
        0.07579093988221762,
        0.02101662040959976,
        -0.04535948376563878,
        0.0503180410047807,
        0.003492565769015085,
        0.10834362277588243,
        0.6312999708833069,
        0.6986449018852228,
        -0.07657208062156676,
        0.3148761114664427,
        0.7565898878624364,
        0.25985906300892936,
        -0.6363662295532135,
        0.030541118678792847,
        0.20360079259141692,
        1.3300754862300366,
        0.581980927123323,
        -0.7951304322984055,
        -0.6754020251959191,
        0.7853935422423083,
        0.6590085842575468,
        0.7830757836540896,
        1.0012848551686995,
        0.6883634720427266,
        0.17314640368157777,
        0.2400165418230734,
        0.5714839733185898,
        0.411654583254669,
        0.1678311008692052,
        0.07373614183636351,
        -0.021616087375006095,
        -0.03460489905688301,
        -0.05484290360995448,
        0.07919459161218569,
        0.09321336888372542,
        0.6473093055740551,
        0.8856937441786452,
        0.3485735173988264,
        -0.49606467662864145,
        0.32620793460494796,
        0.26117573596401844,
        0.26642200859912835,
        -0.08011402880033239,
        -0.49908952985685784,
        0.8132591848956876,
        0.47243611573165994,
        0.8933435662758633,
        0.10791192005627495,
        0.021022794468376765,
        1.0233222370615986,
        1.0585530815678406,
        0.7725112069608632,
        0.6875641535181057,
        0.4210614776236629,
        0.25908506264559356,
        0.23054300209575176,
        0.07977134970492332,
        -0.0684091853230536,
        -0.0012326754812729912,
        -0.011991119936112588,
        0.014505529039815905,
        -0.054251618350887,
        0.1760537876539682,
        0.7242599429754635,
        0.9035069249663417,
        0.6900361194215219,
        0.5832914492472157,
        -0.3986088923091519,
        0.8766312860875325,
        0.6471567783031469,
        1.4265711647767119,
        -1.51444509968296,
        -1.589887277658945,
        -0.16970224707176915,
        0.6921715293331614,
        -0.44452127071983577,
        -0.6274237384855935,
        0.2824245093968469,
        0.7791046847550774,
        1.0850806970736615,
        0.8777858894819854,
        -0.04225962730097847,
        0.013620909167572567,
        0.08343476852341979,
        0.007840624017151288,
        -0.07305067279869851,
        0.046875345338326956,
        0.04404873790408694,
        0.07729193192267976,
        0.040957161558488574,
        0.35873306759831686,
        0.7573165477476776,
        0.9733404120592909,
        0.7511979988657959,
        -0.10339875288569124,
        -0.6706503073628214,
        -0.14763854329651124,
        0.2434936393781574,
        0.45946439137597134,
        0.11111261246063768,
        1.065064727868995,
        0.881844805265015,
        1.0242433704006335,
        -0.3492343326738082,
        -1.0016898243528618,
        -1.1433793229645621,
        -0.8203708524934317,
        0.194234327188145,
        0.26890757134885984,
        0.28111740337152147,
        0.020258928339063433,
        -0.02109395248004396,
        -0.021889687128233654,
        0.05074776091300789,
        0.006427437907029712,
        -0.04058853839759895,
        -0.03097232493452476,
        0.061560837748101116,
        0.0014756676518586933,
        0.13707788004261087,
        0.37993976599378804,
        0.5161543422057455,
        0.28474859616829845,
        0.1856011510833111,
        1.1382907823312303,
        1.9033262002817857,
        1.577088003016215,
        0.9674502816786616,
        0.16868509489246938,
        -0.5472576305103639,
        -0.34175822949954987,
        -0.51693185251867,
        -0.5669256874901152,
        -0.35755660780209286,
        -0.21747348021876728,
        -0.25923548973223504,
        -0.04342193070556649,
        -0.08312163604577558,
        -0.09691454448334033,
        -0.05461534755901654,
        0.030852527699886577,
        -0.04372286909308813,
        0.016610233259278205,
        -0.03655542690557746,
        -0.03735558520720508,
        0.028617634164671828,
        0.08576780153603651,
        -0.04524227214822961,
        -0.06669215053301178,
        0.16365517089299675,
        0.033837350948529334,
        0.1603728808100647,
        0.06319726709834081,
        0.06871346630333094,
        -0.009320900778281533,
        -0.03866541822809267,
        -0.08686385225168089,
        -0.06545490190868185,
        0.14466757480329132,
        0.2640417681463346,
        0.17835308976492126,
        0.1979757712201278,
        0.2006752513655109,
        0.01951673880248861,
        0.01185281398795316,
        0.0724097316477433,
        0.07261608942641312,
        -0.007427411470034925,
        0.04930997408547745,
        -0.0037376308292189496,
        -0.02460430036228204,
        0.053712522138847134,
        -0.0012972741190504298,
        -0.0002776805980376141,
        -0.03399291291400268,
        0.022589513730840474,
        -0.07224286339231091,
        0.031236700450223014,
        -0.010977006005557404,
        0.017365387887145308,
        -0.05561080589990573,
        0.0700609831550855,
        0.04396992657960128,
        -0.04166630290638833,
        -0.028753548781395518,
        0.05161806944660565,
        0.0385105247275481,
        -0.021767952706598297,
        0.09630971485519398,
        0.06571591306583761,
        0.02315548477898985,
        0.002427658663593518,
        -0.022907808067859557,
        -0.04101265877884777,
        0.017453257243024104,
        0.02856243178362473,
        0.02924348102856061,
        -0.04007494221080861,
        0.07326560511770572,
        0.05210490732072034,
        0.01135910056413698,
        0.06739620096499675,
        0.06553224848514964,
        0.05316389916502134,
        0.042149158437148115,
        0.022830671074491573,
        -0.03155959062416842,
        0.0355938757226549,
        -0.024186909688131444,
        0.06199198319413356,
        0.03415225166882289,
        -0.08570292867992256,
        0.07172509863825159,
        -0.061425431592225826,
        -0.02463638112299912,
        0.0025388120227867314,
        0.04902428212130399,
        -0.06637257720842664,
        0.050995904893631185,
        0.08307305674622947,
        -0.01911756797585318,
        0.012249507947568822,
        -0.026232439429824103,
        0.017172213728419913,
        -0.03385822835597991,
        0.046702872814160405,
        -0.05182385279106311,
        0.047041778562201826,
        0.030153537081410796,
        -0.03537523833059787,
        -0.012219129333407363,
        0.041335790221984255,
        -0.06503141086878916,
        0.019374236230663762,
        -0.044697561212326764,
        -0.02210931123852246,
        0.03528637006737551,
        0.006167078468459722,
        0.050932644521887,
        0.060925312959854254,
        0.07245231758872868,
        0.0054012506394676,
        0.00037124099024299866,
        0.03583177157106304,
        -0.03574688552713208,
        0.00534373057046773,
        -0.03634840358831699,
        0.019768119190958767,
        0.015178832105865124,
        -0.000381283845913261,
        0.06989370871868975,
        -0.04023306119030474,
        0.03314204478207113,
        0.06413576453385747,
        -0.0055526467529964044,
        -0.026134456412399403,
        0.021165207186697198,
        0.05560138257530659,
        -0.016165139134698733,
        -0.04656007164113524,
        0.0032585666450944393,
        0.027376046042688045,
        0.016955992304186148,
        -0.07733785544282543,
        0.0413538678433447,
        0.03535911554867044,
        0.0568676622570283,
        0.06951927182185831,
        0.03611744302357383,
        -0.204272736279393,
        -0.45723139413254,
        -0.30356388530078005,
        -0.27482612526681766,
        -0.42001129521530467,
        -0.32850239256122904,
        -0.2710744549415392,
        -0.294725090643206,
        -0.04842423250418051,
        -0.08986684009366032,
        -0.04027911496771764,
        -0.02133482099573354,
        -0.06759462445098774,
        0.06187398734802146,
        -0.030669044361783276,
        -0.020731321182180927,
        -0.04359246086690222,
        0.004771850271492512,
        0.004768509358496981,
        0.05652480543632473,
        -0.07254450554290211,
        -0.05580924068047306,
        -0.06432770982800498,
        -0.049416061562321166,
        0.3344515283451985,
        0.4271967893538204,
        0.03845465023768305,
        -0.09432828151335286,
        -0.6429605151428256,
        -0.6426716728940922,
        -0.9377234632489871,
        -0.19307335829928443,
        -0.18072035710600035,
        -0.08621074821782113,
        -0.14575420940521744,
        0.10830563024709537,
        0.08819630006969137,
        0.2737008862151359,
        0.1543959817125265,
        0.012228634682781321,
        0.044424537274733195,
        -0.00038936971799585844,
        0.08515932973413268,
        0.04368935119248034,
        -0.006749538771947556,
        -0.018376227470051926,
        -0.12857288349241203,
        0.007893523304596136,
        -0.02284367393185831,
        -0.42164985859401344,
        -0.5650763439631071,
        -0.17210285947200085,
        -0.25582459046778594,
        -0.2218232398803801,
        -0.7355955727766871,
        -0.5534099765592958,
        1.1325047167047524,
        -1.0038914022548362,
        0.044826517888227634,
        1.0093937888149294,
        0.057763457874457025,
        0.39908621306769093,
        0.6499199524961699,
        -0.11351162981477685,
        -0.31051674992569883,
        -0.05161554806667976,
        -0.12766952117379915,
        -0.1710557614255234,
        0.06386127589859987,
        -0.016413095719813534,
        0.024759280212011237,
        -0.01870004059728821,
        0.009385114704936815,
        -0.09570646152489838,
        -0.27857185698630804,
        -0.26634404976935655,
        -0.5883353124439773,
        -0.39091714994932447,
        -0.5080384939481586,
        0.3452972250551804,
        -0.7452393876286367,
        -1.2125944448530623,
        0.10124735436067937,
        0.22778708396598815,
        0.7843210960603781,
        -0.31048006679511914,
        -0.2532599005627841,
        1.3250398570539907,
        0.3992139294963497,
        0.2220451083192411,
        -0.5336224747877832,
        0.4391036894780872,
        -0.5859830234132096,
        -1.0583728555832368,
        -0.34437676192844896,
        -0.4768528147378656,
        0.024376175321148677,
        0.013154831969580335,
        -0.07044230755788576,
        0.04428580537707505,
        -0.07554714590574757,
        0.31901975671373234,
        -0.08949060964811192,
        0.1557209341761324,
        -0.2882640181120441,
        0.08309371079634494,
        0.47298956854154284,
        0.3115837601897677,
        -0.03458867376398303,
        -0.6712917980374491,
        0.666143169227301,
        -0.8276787897543224,
        -0.7406547184249287,
        0.6706707821272562,
        -0.23661756307476922,
        -0.6941175699158411,
        -0.555142438010155,
        0.783246825349269,
        -0.22174441444737525,
        0.334428332554823,
        -0.599222763750392,
        -0.31569420208320365,
        -0.4807857269197247,
        -0.48533998463394334,
        -0.11976986108304989,
        0.04058036705871324,
        -0.0720971627254176,
        0.07893492786194808,
        0.1341650996056569,
        0.24143337657204333,
        -0.3214107133290941,
        -0.4647750007579339,
        -0.44397098122242584,
        -0.39287834525996834,
        0.14579300843666196,
        0.21641187117727712,
        -0.19070073386906608,
        -0.238321982782853,
        -0.9444194935920194,
        -0.23871458162864426,
        -1.1098473966815412,
        0.5034158196785617,
        0.17528109552481194,
        1.2457622155006165,
        0.6718380453173316,
        0.5376022787641,
        0.07867951690948094,
        0.15590229283879461,
        0.9547682379197575,
        0.3834960728273697,
        -0.06353154308732978,
        -0.47134386442865017,
        0.00975899855832604,
        -0.03149322017594434,
        -0.009093837176273642,
        0.07463527148542391,
        0.19192008992330725,
        -0.01011506750870677,
        -0.4129408113836617,
        0.19651487480255342,
        0.4686689416308363,
        0.7693646310655843,
        -0.10599986801122406,
        0.20910209686098163,
        0.3980650359668548,
        -0.32699591411928053,
        -0.18164696872930503,
        -0.8051354812172498,
        0.9441229605795077,
        -0.02818519514953981,
        -0.5476033532457721,
        -0.2660167565222637,
        0.36110408990557497,
        -0.7134139536409525,
        1.0320686988927223,
        -0.2558101564511769,
        1.2436233153474212,
        0.5323695001599976,
        -0.2591711749379295,
        -0.4798234298692266,
        0.020682200255843632,
        -0.07194756071208429,
        0.0030636228650566303,
        0.01913774019438504,
        0.24377896400651017,
        -0.18544126554383397,
        -0.7874706863618154,
        0.012611014988556163,
        -0.7863248514788825,
        -0.43015998335347105,
        -0.5605045050479127,
        0.28360454454634415,
        0.6837703287061886,
        0.13446157868592318,
        -0.055230124038802494,
        0.5591767899065769,
        -1.1253460843323477,
        -0.5039672279220341,
        -0.4166460238290053,
        0.8342560205829205,
        0.49055023192886504,
        1.0584062609544829,
        0.07875176282072278,
        -0.14738710209245273,
        -0.22147539124691032,
        0.6543954474054102,
        -0.5093498452558287,
        -0.8606764761510864,
        -0.017190857946415315,
        -0.08997246224897966,
        0.004078446166761145,
        0.06655677186080972,
        0.21138393699417599,
        -0.2330005040917426,
        -0.00924562810965595,
        0.5176270336731228,
        0.2932818210213675,
        1.0723326490952698,
        -1.084560705350381,
        0.7141259201595104,
        -0.5791858434317877,
        -0.18775375564619612,
        0.336009131181433,
        0.18567005593740457,
        0.17089675824476686,
        0.6271396994036278,
        1.099792579691673,
        0.41675986030296247,
        0.7635652280644377,
        1.0243056762892926,
        0.05931317135518663,
        -0.2812461571414525,
        0.18367013536372453,
        0.8955393879029941,
        -0.20483154762774877,
        -0.6016839720047311,
        -0.08645525270560646,
        -0.005370546622528155,
        0.07715817478185069,
        0.12578755561698413,
        0.2128868960883006,
        0.036712009552665605,
        0.19858482538541755,
        0.7810032688267041,
        0.4408926417707812,
        0.12672602114970202,
        0.2043006508487417,
        -0.23096203185602557,
        0.018270030072788674,
        0.3262422725946604,
        -0.38716445247201997,
        -0.5423860273727301,
        0.37125888563012444,
        -0.22162431048580095,
        0.07352977712671088,
        -0.9581807425521539,
        -0.8017810305489718,
        0.5122784268579806,
        0.8129926876387261,
        1.2793224577903624,
        0.7189135992302096,
        0.4958949499801042,
        0.22306087663109586,
        -0.31138212593872233,
        -0.332623022345291,
        -0.058831493330258104,
        0.024076747401917873,
        0.10540151708871968,
        0.249545022848522,
        0.2895785833670895,
        0.1987632560066585,
        0.22839636537439126,
        0.24403916414233517,
        -0.28216306955133674,
        0.7971209643357711,
        0.3684587624958964,
        0.10130750047571647,
        -0.8007949418009211,
        0.36808858294429464,
        -0.3731161614965083,
        -0.4445840080935349,
        -0.024102204042879948,
        1.2391783522540634,
        0.021382690656275318,
        -0.6202199099147659,
        0.7980250503121019,
        -0.6712273286560168,
        1.0704312650315249,
        1.1939512091810225,
        1.3618354130956318,
        0.8054352659629465,
        0.05606107919800636,
        -0.06620839248623392,
        0.025926120493655034,
        -0.05995790240089977,
        -0.000637076025755701,
        0.0947206697572246,
        0.15056790398176675,
        -0.40080067589397195,
        -0.4074602314225535,
        -0.09876435130033792,
        -0.4250096681062252,
        0.40780940803749594,
        -0.05155922835431682,
        -0.7166389633375169,
        0.11365343809949649,
        -0.4931467110058367,
        0.9575864623748428,
        -0.8323264083596074,
        -0.1419105422059099,
        0.08386011974664205,
        0.13350476608214681,
        0.6643757733758813,
        0.7493252329929196,
        -0.2961082055886245,
        0.619792472859096,
        0.6426858221387984,
        0.5839008386089157,
        0.5777262600396502,
        0.3387343066432546,
        -0.02191211952468845,
        0.0976709178639336,
        -0.04012516560667817,
        -0.04647554187020587,
        0.061577828281964196,
        0.2917201883829214,
        0.05505297566483447,
        -0.4512190707304509,
        -0.4347294358970679,
        -0.19945905322411286,
        -0.31926197441664134,
        -0.019697013097864743,
        0.3786250089172782,
        0.464754098595314,
        -0.7645684772505018,
        0.6086882092439049,
        -0.9713195529011843,
        -0.5852421439619202,
        0.7701048699747793,
        1.1012332290312834,
        0.30009540903875737,
        0.10403599935657336,
        0.41928426438925204,
        0.019275935109825015,
        0.612598901798013,
        -0.34218662316476806,
        -0.01242552721653215,
        0.36231186799061005,
        0.030347562260128275,
        -0.020298983941875015,
        0.004525905903068535,
        0.015704139934570188,
        0.04286681436514629,
        0.33530647992903667,
        0.9601356182555902,
        1.3519347920041087,
        0.07348590128979947,
        0.22075255917753478,
        -0.3283706968666516,
        -0.2983197427320501,
        -1.684657163843344,
        -0.6989800887239113,
        -0.2170761043195396,
        0.5626683466047467,
        0.12753137580692245,
        -0.1602342502565137,
        0.5250504002131848,
        1.0379557038862146,
        0.18316642263221564,
        0.24926154582998808,
        -0.2104979936755597,
        -0.6139249361577342,
        -0.11677321629874134,
        -0.7576137488459931,
        -0.4360831297744089,
        0.22324624842728158,
        -0.04761449059565606,
        0.00589573720425833,
        0.0397166856307349,
        -0.09886664638020183,
        -0.21467003125236983,
        0.021162447124543463,
        1.7547593932443493,
        2.5654538044816437,
        3.036076379955208,
        3.0170151247593546,
        2.7088240783247226,
        0.8621543489359558,
        -1.0923283000418822,
        -1.2070643118909268,
        -1.4148388388951667,
        -0.7413369805355018,
        -0.22049093573257586,
        1.3342167523700068,
        1.154835784611889,
        1.0402721685242,
        -0.7658916028743771,
        0.12013517217477727,
        -0.21977552833803388,
        0.40311412008479613,
        -0.5158805240795412,
        -0.23858299652620046,
        -0.6397281794451048,
        0.4228379629537861,
        0.2814435578370987,
        -0.04122045158315666,
        0.07115807347337819,
        -0.07922572893198372,
        -0.07678130079361367,
        -0.23379036661680722,
        1.7804100026681164,
        2.8127908215575035,
        3.8506864345319736,
        3.6331383836490745,
        5.247186156280844,
        6.148063614040858,
        4.441407732270452,
        1.8372444828411714,
        -0.05059729442443133,
        -0.062075668577336776,
        1.0610964531678373,
        0.48705833873010795,
        1.143176098613034,
        -0.0152557803069714,
        -0.7374666953566331,
        -0.07535789124368135,
        -0.6106097314945704,
        0.7143008247740902,
        0.2710329403719621,
        -0.22106349202305478,
        -0.07413223016330454,
        0.38476861037862337,
        0.21596993967254277,
        -0.0554955957049259,
        -0.05184949779543349,
        0.0020870375176756197,
        -0.048463978468713406,
        -0.4671877566924168,
        0.6647592186155699,
        2.147014485700609,
        2.185448780781359,
        1.5938287925603805,
        3.5769439337919375,
        6.024713164774206,
        7.278411299996462,
        8.154056644941445,
        7.653333801099897,
        5.433107115594559,
        2.2284738024181667,
        0.5289349038688068,
        -0.8758534364483604,
        0.12101516711132765,
        -0.06883494466262648,
        -1.0904467097147224,
        -0.6285554679189645,
        -0.7441463867601965,
        -0.547290654796623,
        0.3022753723801059,
        0.4790563179169349,
        0.10618602602691428,
        0.08967379936494138,
        0.07987179500183048,
        0.08446533360209602,
        -0.008889372726182532,
        -0.13601594712835444,
        -0.29121872131156223,
        -0.11819626992264398,
        0.6632590622032097,
        0.18197090080363618,
        0.5611374788425835,
        0.29793963341965507,
        0.7610883866823137,
        1.6253143949926976,
        2.6021743348139195,
        2.194129386636659,
        2.5802679946615403,
        0.8876075942183167,
        -0.19979796745768938,
        0.20028759061398993,
        0.4344154596009333,
        -0.5978491955221791,
        0.4249331302044294,
        0.7212675200682807,
        -0.33795816589327304,
        -0.5072138854172632,
        -0.5178243175156843,
        0.3765005699768683,
        0.018485268092938625,
        -0.006337927230558702,
        0.009192866754955899,
        -0.004111286127637323,
        0.08253271393051444,
        -0.02460252475781537,
        -0.35147936666754664,
        -0.47770500979952923,
        -0.41055106445934414,
        -1.022720604783124,
        0.1313480703273995,
        -1.288058959771225,
        -1.5851581509645822,
        -1.495436459480696,
        -2.1386304338339563,
        -1.8450731375148404,
        -0.5670810308456314,
        -0.71302453595309,
        0.12699149272348703,
        0.5683282314021357,
        0.08985416279276183,
        -0.7245803672114258,
        0.13504709586018723,
        -0.42732293350050243,
        0.8307503673724563,
        -0.5654077352888518,
        -0.47506824826158406,
        0.32477669684001537,
        0.1212506674639822,
        0.08227916900439111,
        0.0699275360755624,
        -0.011685941986743187,
        0.026408592676981403,
        -0.00009684493566805391,
        -0.492280834643487,
        -1.134353295063296,
        -0.7858425140643821,
        -1.126889684833974,
        -1.1172936160971627,
        -1.6661600868732256,
        -0.5948658420046653,
        -1.6622229998857119,
        -0.9134062139329757,
        -1.1605282183382732,
        -0.5489517468410781,
        -0.9361686974508817,
        -0.3710501600933585,
        -1.1245865977931182,
        0.5226637406955154,
        -0.8174767184773659,
        -0.23927765908881657,
        -0.9559211028707336,
        0.5671149586390171,
        -0.5749084436168912,
        -0.9406226714338011,
        0.3332559880871643,
        0.06733455496982751,
        -0.021436569167712034,
        -0.06562512379069148,
        -0.0794596035814419,
        -0.07007648347142875,
        0.03782688503069059,
        -0.21512427682313195,
        -0.8108514873992996,
        -0.7013645345805062,
        -0.32567743365097246,
        -0.45832189935887613,
        -0.7740067284867743,
        -0.0211463105863996,
        -1.1743097700977372,
        -1.1638426149072099,
        -1.379493115960642,
        -1.110463582538675,
        -0.6480224170195796,
        0.29897679514883846,
        -0.23230358974235754,
        -0.4185382774903101,
        0.18240388177971256,
        -0.5309961141310124,
        -1.2662934890567437,
        0.44824379019706806,
        -0.14883492726449954,
        -0.9264268939191399,
        0.12088564725294429,
        0.11573804419321237,
        -0.02585612360820583,
        -0.01603223819973457,
        -0.006217730540636431,
        -0.07258687659928163,
        -0.08235183386665562,
        -0.10304452260041479,
        -0.6329760305871935,
        -0.8329389331244123,
        -0.7500449965205156,
        -0.8655659178967257,
        -1.1060268184968463,
        -1.305682339239516,
        -1.8869307487361797,
        -0.41521338858912743,
        -0.49359932442193716,
        0.2655774184348553,
        -0.19231730473386605,
        0.02374470009389254,
        -0.2304377833245112,
        -0.0711070950370182,
        0.43833848732828556,
        0.2780968178682902,
        0.5908130837781774,
        0.9125631678259372,
        0.05087753983581205,
        -0.48309525573068035,
        -0.11551237630125405,
        -0.058537623142565325,
        0.037230360809182066,
        0.002348534453672278,
        -0.07900188440892275,
        -0.0273891636032833,
        -0.04036265938636665,
        -0.10799022706584922,
        -0.28455080083369677,
        -0.6579274927066332,
        -1.031424364829982,
        -1.8064440790247158,
        -1.7941250585390818,
        -1.0341776848510342,
        -1.5007524118729727,
        -1.040081733872619,
        -0.7043127260070108,
        -0.8139897157739557,
        -0.24687702424928795,
        -0.17848979821290203,
        -0.07842805245360494,
        -0.829350561777262,
        0.5591591214309822,
        0.5321726314334202,
        0.7211256126163236,
        0.34622746481551236,
        0.019188826009803685,
        -0.28518919876737636,
        -0.06443634123789678,
        0.021908269917301635,
        -0.0529438535175266,
        -0.05653838445127466,
        -0.052842152097323083,
        -0.004314372304179397,
        0.01704187924449076,
        0.04484423806847416,
        -0.05204220997187127,
        -0.396861139398808,
        -0.5964698844109565,
        -0.5937540576186937,
        -1.0753555607804959,
        -1.0341765658750184,
        -0.599988434132125,
        -0.5220130645768783,
        -0.636978250552287,
        -0.9349741540250551,
        -0.11341178695768146,
        0.1897575262194783,
        -0.10170634039495212,
        -0.03485271937039732,
        -0.5256508082565633,
        -0.22396194534828381,
        0.211970761874636,
        0.056572715164800655,
        -0.0985769947370252,
        0.01437758963465134,
        0.06067105743380845,
        -0.00880224765054647,
        0.01941152573318116,
        0.07638883490346496,
        -0.03992496761610571,
        0.05800923319613114,
        0.06418022978147549,
        -0.0002922702299663915,
        0.04774864583258366,
        0.0008415351847610888,
        -0.011165887346543401,
        0.17543134037222285,
        -0.06381402169689696,
        -0.5391267087850748,
        -0.5572385872680468,
        0.1245589033211698,
        0.2043634643775878,
        -0.45777930884915147,
        -0.5094336958779071,
        0.5159559292895542,
        -0.6111152462945103,
        -0.7866005522774208,
        -0.6744419352041708,
        -0.2530026971101529,
        -0.6500487343541705,
        -0.5594396069015695,
        -0.1411564399058564,
        -0.06587519357726787,
        -0.01354399266038041,
        0.03506997179550752,
        0.020003697253099247,
        0.08195026722617234,
        0.08480602959392408,
        0.04487297518367172,
        0.018035086493347497,
        0.0007797058914819424,
        0.007841278808722424,
        -0.044163596825743244,
        0.0027077937029102274,
        -0.029144319031582447,
        -0.07106292372174443,
        0.03502495634192327,
        -0.05550799132921233,
        -0.06118185851647941,
        -0.1639427528505912,
        -0.02945763243622656,
        -0.14822955642897767,
        -0.02288460893438011,
        -0.0976236980816549,
        -0.10208304730242909,
        -0.1336316804324744,
        -0.14598650740238178,
        0.049990594819374116,
        0.06312317428874761,
        0.02024221288795912,
        -0.04288106668040637,
        -0.023041342397005563,
        -0.055201917689571424,
        0.0488714362725241,
        -0.04017988156863866,
        -0.03592294507442029,
        -0.0602580914627369,
        0.04901194936315858,
        -0.07940161644326778,
        -0.05398948230805528,
        0.040869886323478474,
        -0.004147544450193886,
        0.046554986844496125,
        -0.08433374690423215,
        0.01705841035806308,
        0.03423752910941494,
        0.005961559279017293,
        0.02911031814380108,
        -0.0006310619267387057,
        0.03962718260196114,
        -0.0007233905362311618,
        -0.04833821401000891,
        -0.003153018257358211,
        0.038962593349051534,
        -0.0314735267796789,
        -0.05117107870431703,
        0.05527299166394367,
        -0.0003580588596196307,
        -0.013779818978393641,
        0.025418210241829234,
        -0.02913908046718154,
        0.08450446642690955,
        0.034864372732287555,
        0.011407908010853174,
        0.034711161061183576,
        0.011241908322257244,
        -0.08074101221975051,
        -0.05011788564656864,
        -0.006235884625086372,
        0.052406474761098956,
        0.044948574576772926,
        0.0034985245525458847,
        0.0454351229125347,
        0.05532347941930827,
        -0.04197431346157496,
        -0.06883085368714184,
        -0.027403077126213198,
        0.022175880089078327,
        0.11157227372137377,
        0.02673890334916768,
        0.008317169750395339,
        0.06924209045129825,
        0.08259129613135106,
        0.022833248127942803,
        -0.0570147095799624,
        0.0853193710931831,
        -0.07234695844020947,
        -0.009967656789903901,
        -0.044637373676198064,
        -0.01010760598941408,
        -0.011186187268796192,
        -0.0208245531084293,
        0.03700582136870752,
        0.007668167809671544,
        -0.012140635296227756,
        0.0026161345427541684,
        0.042400806621437075,
        0.04342589967663775,
        0.09782013643502616,
        0.2162370809224279,
        0.3585060454137978,
        0.45229769882115656,
        0.2470169303230064,
        0.2501756234392279,
        0.5126586006702722,
        0.8519262671263919,
        1.1397079928117764,
        0.34689014684071984,
        -0.054949049209702144,
        -0.18749843361653368,
        -0.33570696863631777,
        0.11088974391673936,
        0.2022561853888157,
        0.1414678009112236,
        0.09402556934146665,
        -0.008822137848651511,
        -0.0898289841114234,
        0.01352485726672919,
        0.041405077835541385,
        -0.0007373996132503908,
        0.0346694599034679,
        -0.05094376993059243,
        -0.06106188414558002,
        -0.0922275121215833,
        0.054099811797459645,
        0.1178824879580633,
        0.3450121332622191,
        0.42229225295508727,
        0.5165094009118693,
        0.2782327205121528,
        -0.16355539803534816,
        0.16792848599712543,
        0.3725316175228277,
        0.5045781956784082,
        0.12123373602409858,
        0.48116908831760224,
        -0.3260088528255595,
        -0.2448506364884371,
        -0.18429746499984695,
        -0.20186036973813476,
        0.4859651227689387,
        0.5964725126222735,
        0.1446193935849742,
        -0.0395660889646083,
        -0.02497553670062509,
        0.06642675783237795,
        0.03902404399224001,
        0.004742958757596395,
        -0.021526811518570346,
        -0.0493288514310212,
        0.022523222888799283,
        0.027142735431391146,
        0.009132551741355658,
        0.012400439482145174,
        0.16086288523105882,
        0.049923459543762934,
        0.04692440821485466,
        -0.43119288305826303,
        -1.1046836671628881,
        -0.7889131618080132,
        0.02604280873244629,
        -0.8020699468803458,
        -0.8677995155562116,
        -0.08658269722491894,
        -0.20851449556521787,
        0.35350453502855417,
        -0.5616903223370593,
        0.2883866048236488,
        -0.29983786164889503,
        0.7403926410805914,
        0.056445271825604715,
        -1.4568226915043405,
        -0.464973614184228,
        0.020810922836750064,
        -0.000445588035440599,
        0.0383993442502598,
        -0.07515186252493268,
        0.05028623058794081,
        0.07418581038673787,
        0.15200357613200935,
        0.13455527120648714,
        -0.09757736536395789,
        -0.13304489692985627,
        -0.6133228574119769,
        -0.4007242625509441,
        -1.110390827991066,
        -2.287018114506693,
        -0.9114260754560934,
        -0.41638127925626633,
        0.03980233461861652,
        0.46598574813528537,
        -1.5556625437036589,
        -0.1428203848115719,
        -0.0672072614772928,
        -0.3889105823372143,
        -0.2817328141567433,
        0.7774656714783542,
        -0.28773032883458904,
        0.052742974236253834,
        -0.41225328484447227,
        -0.45843070876587144,
        -0.016600791305208747,
        -0.06655972430345306,
        0.07791516253455276,
        -0.011793285004994858,
        -0.049070176983016085,
        -0.08823987589205415,
        0.2243690824030952,
        -0.009861512807307349,
        -0.5723967758486938,
        -0.7791700330795249,
        -2.2292970056142405,
        -1.5111428521109818,
        -0.5147806279450348,
        -1.367781752959089,
        -2.0685917086228574,
        -1.8267434757730567,
        -0.5332689910200185,
        -0.9412710250885119,
        -1.3093422512900397,
        -1.1106833701942938,
        -1.4748310300248955,
        -0.08472704572789616,
        -0.11150267192248998,
        0.41169406537687514,
        -0.39554398920504236,
        -0.1794299838955309,
        -0.6166863087660549,
        -0.4536897261471452,
        -0.16064283044896263,
        0.08652097908644192,
        -0.0636264021155861,
        -0.020261074289757295,
        0.021618247440315756,
        -0.2161752923018865,
        -0.094375788587739,
        -0.5313248645998133,
        -0.6291965034408975,
        -0.872655105248772,
        -1.9640277573460345,
        -2.295883706043256,
        -0.9408300560443134,
        -0.7828972063549724,
        -0.3375389255951123,
        -0.8178178479689321,
        -1.2054785905609924,
        -0.7726027125669012,
        -0.5891125994225029,
        -0.9236154687374452,
        -1.4172922252053048,
        1.2698550948395493,
        -0.2918776603477911,
        -0.03596793690802966,
        -0.18064089614794526,
        0.18924735362987083,
        0.07504509268305101,
        -0.542988221123511,
        -0.330111208196847,
        -0.10493940333463737,
        0.07551791204883436,
        -0.03927930334801292,
        -0.053056738197176094,
        -0.3869655889684582,
        -0.8204451567170427,
        -1.1253169677516044,
        -1.4028450265169266,
        -1.7676216185333748,
        -2.5207930805701966,
        -1.2604548547513776,
        -1.2755991845835792,
        -0.2895421593926639,
        0.3847888486774276,
        0.29139051268542315,
        -0.41020857880366784,
        -0.7578494133321318,
        -1.2594172723420094,
        -0.5339415399899166,
        -1.6579975940057587,
        -0.6034061959890725,
        0.12293904846006048,
        -0.7705844605506585,
        -1.206013624550398,
        -0.896861245602196,
        -0.9823114192068241,
        -1.047365430576259,
        -0.23752697728450312,
        0.03231768787543619,
        0.0039313909989086345,
        0.020224677420164615,
        -0.1698125160638992,
        -0.6371634523309843,
        -1.0988989806127238,
        -1.9427481194736196,
        -2.483440595788175,
        -1.8252606854399174,
        -1.246589115178143,
        0.4628408809842898,
        0.4973573960691758,
        0.5289627513645129,
        0.7970519304748329,
        0.1757379892033492,
        -0.5606496078127522,
        -0.05879400741444108,
        0.2594969347527942,
        -1.9430563160047951,
        -1.0886204894553493,
        -1.6238320475744947,
        -1.9190523629395135,
        -2.287030702990215,
        -0.9741229084399529,
        -1.9848888242874514,
        -1.1286965350035163,
        -0.6408007297994162,
        -0.21521808153307623,
        -0.008605206274519906,
        0.07235574482177425,
        -0.058330197167230584,
        -0.22138484478614837,
        -0.7406503432388343,
        -1.4104018821370001,
        -2.2296507926680924,
        -1.6065957480519868,
        -1.395828238326753,
        0.10492602763605925,
        0.16422782919356288,
        -0.1840337293908326,
        0.5221953384579967,
